{
  "config": {
    "data": {
      "n_images": 240,
      "n_units_per_family": 10,
      "embedding_dim": 32,
      "n_rois": 5,
      "roi_voxels": 24,
      "random_seed": 7
    },
    "nsd": {
      "enabled": true,
      "npz_path": "tmp_nsd_strict_payload.npz",
      "raw_dir": "",
      "layout_root": "",
      "feature_npz_path": "",
      "strict": true
    },
    "rl": {
      "algorithm": "grpo",
      "budget": 32.0,
      "epochs": 1,
      "learning_rate": 0.035,
      "entropy_coef": 0.005,
      "lagrangian_lr": 0.015,
      "grpo_group_size": 6,
      "grpo_adv_clip": 2.5,
      "grpo_ratio_clip_epsilon": 0.2,
      "grpo_kl_coef": 0.02,
      "grpo_ref_update_interval": 2,
      "grad_clip_norm": 5.0,
      "forward_temperature": 0.2,
      "backward_temperature": 0.8,
      "alpha_recog": 1.0,
      "beta_sem": 0.9,
      "gamma_perc": 0.7,
      "lambda_cost": 0.08,
      "delta_novelty": 0.45,
      "eta_schema": 0.35,
      "non_monotonic_low_level_peak": 0.45,
      "reward_weight_grid": [
        [
          1.0,
          0.8,
          0.6
        ],
        [
          1.0,
          1.0,
          0.5
        ],
        [
          1.0,
          0.6,
          1.0
        ]
      ]
    },
    "encoding": {
      "ridge_alpha": 1.0,
      "banded_alphas": [
        0.25,
        1.0,
        4.0,
        16.0
      ],
      "banded_max_iter": 2,
      "train_frac": 0.8
    },
    "rsa": {
      "train_frac": 0.8,
      "fr_rsa_alpha": 1.0
    },
    "subject_eval": {
      "enabled": true,
      "min_images_per_subject": 4
    }
  },
  "data_source": "nsd",
  "selected_reward_weights": {
    "alpha": 1.0,
    "beta": 0.8,
    "gamma": 0.6
  },
  "feature_quality": {
    "n_images": 10,
    "coverage_all_families_rate": 1.0,
    "energy_min": 7.6236917122168055,
    "energy_mean": 8.497971012281731,
    "energy_max": 9.40576487274154,
    "variance_min": 0.7981195173660223,
    "variance_mean": 0.9968648160035466,
    "variance_max": 1.2282305829811584,
    "low_energy_image_ids": [],
    "quality_pass": true
  },
  "retention_diagnostics": {
    "avg_budget_utilization": 0.3562499999999998,
    "min_budget_utilization": 0.3562499999999999,
    "max_budget_utilization": 0.3562499999999999,
    "avg_selected_units": 12.0,
    "min_selected_units": 12,
    "max_selected_units": 12
  },
  "training_reward_history": [
    0.7870307691315633
  ],
  "lagrangian_history": [
    0.2
  ],
  "training_diagnostics": {
    "algorithm": "grpo",
    "clip_fraction_history": [
      0.0
    ],
    "approx_kl_history": [
      0.0
    ],
    "grad_norm_history": [
      0.017320508075688773
    ],
    "epoch_reward_std_history": [
      0.1004562226197079
    ],
    "epoch_adv_std_history": [
      0.0
    ],
    "ratio_clip_epsilon": 0.2,
    "kl_coef": 0.02,
    "ref_update_interval": 2,
    "grad_clip_norm": 5.0
  },
  "reward_weight_sweep": [
    {
      "weights": {
        "alpha": 1.0,
        "beta": 0.8,
        "gamma": 0.6
      },
      "training_reward_history": [
        0.7870307691315633
      ],
      "lagrangian_history": [
        0.2
      ],
      "training_diagnostics": {
        "algorithm": "grpo",
        "clip_fraction_history": [
          0.0
        ],
        "approx_kl_history": [
          0.0
        ],
        "grad_norm_history": [
          0.017320508075688773
        ],
        "epoch_reward_std_history": [
          0.1004562226197079
        ],
        "epoch_adv_std_history": [
          0.0
        ],
        "ratio_clip_epsilon": 0.2,
        "kl_coef": 0.02,
        "ref_update_interval": 2,
        "grad_clip_norm": 5.0
      },
      "family_shift": {
        "family_names": [
          "semantic",
          "object",
          "geometry",
          "low_level"
        ],
        "exposure_retention_fraction_by_family": [
          [
            1.0,
            1.0,
            1.0,
            1.0
          ],
          [
            1.0,
            1.0,
            1.0,
            1.0
          ],
          [
            1.0,
            1.0,
            1.0,
            1.0
          ]
        ],
        "policy_delta_exposure3_minus1": [
          0.0,
          0.0,
          0.0,
          0.0
        ]
      },
      "family_brain_alignment": {
        "per_roi_spearman": [
          0.0,
          0.0
        ],
        "mean_spearman": 0.0
      },
      "fr_rsa": {
        "strategy": "compressed",
        "exposure_correlations": [
          0.1416666666666667,
          0.0,
          -0.43333333333333335
        ],
        "roi_exposure_correlations": [
          [
            0.5833333333333334,
            -0.3
          ],
          [
            0.39999999999999997,
            -0.39999999999999997
          ],
          [
            -0.7333333333333334,
            -0.13333333333333333
          ]
        ],
        "roi_family_weights": [
          [
            [
              0.020761962346326095,
              0.0,
              0.09228955293445897,
              0.0
            ],
            [
              0.35916626210563135,
              0.017467294710815623,
              0.0,
              0.0
            ]
          ],
          [
            [
              0.22586816511059787,
              0.040015018887314006,
              0.00795991199207333,
              0.0
            ],
            [
              0.2831285148995153,
              0.020084595705254542,
              0.39072571853369376,
              0.0
            ]
          ],
          [
            [
              0.0,
              0.0,
              0.0,
              0.0
            ],
            [
              0.0,
              0.0,
              0.0,
              0.07660185395889081
            ]
          ]
        ]
      },
      "behavior_fit": {
        "name": "policy",
        "spearman": 0.07997333942467778,
        "mse": 0.02130152484963697
      }
    },
    {
      "weights": {
        "alpha": 1.0,
        "beta": 1.0,
        "gamma": 0.5
      },
      "training_reward_history": [
        0.8385524132395098
      ],
      "lagrangian_history": [
        0.2
      ],
      "training_diagnostics": {
        "algorithm": "grpo",
        "clip_fraction_history": [
          0.0
        ],
        "approx_kl_history": [
          0.0
        ],
        "grad_norm_history": [
          0.017320508075688773
        ],
        "epoch_reward_std_history": [
          0.10433429130090763
        ],
        "epoch_adv_std_history": [
          0.0
        ],
        "ratio_clip_epsilon": 0.2,
        "kl_coef": 0.02,
        "ref_update_interval": 2,
        "grad_clip_norm": 5.0
      },
      "family_shift": {
        "family_names": [
          "semantic",
          "object",
          "geometry",
          "low_level"
        ],
        "exposure_retention_fraction_by_family": [
          [
            1.0,
            1.0,
            1.0,
            1.0
          ],
          [
            1.0,
            1.0,
            1.0,
            1.0
          ],
          [
            1.0,
            1.0,
            1.0,
            1.0
          ]
        ],
        "policy_delta_exposure3_minus1": [
          0.0,
          0.0,
          0.0,
          0.0
        ]
      },
      "family_brain_alignment": {
        "per_roi_spearman": [
          0.0,
          0.0
        ],
        "mean_spearman": 0.0
      },
      "fr_rsa": {
        "strategy": "compressed",
        "exposure_correlations": [
          0.1416666666666667,
          0.0,
          -0.43333333333333335
        ],
        "roi_exposure_correlations": [
          [
            0.5833333333333334,
            -0.3
          ],
          [
            0.39999999999999997,
            -0.39999999999999997
          ],
          [
            -0.7333333333333334,
            -0.13333333333333333
          ]
        ],
        "roi_family_weights": [
          [
            [
              0.020761962346326095,
              0.0,
              0.09228955293445897,
              0.0
            ],
            [
              0.35916626210563135,
              0.017467294710815623,
              0.0,
              0.0
            ]
          ],
          [
            [
              0.22586816511059787,
              0.040015018887314006,
              0.00795991199207333,
              0.0
            ],
            [
              0.2831285148995153,
              0.020084595705254542,
              0.39072571853369376,
              0.0
            ]
          ],
          [
            [
              0.0,
              0.0,
              0.0,
              0.0
            ],
            [
              0.0,
              0.0,
              0.0,
              0.07660185395889081
            ]
          ]
        ]
      },
      "behavior_fit": {
        "name": "policy",
        "spearman": 0.07997333942467778,
        "mse": 0.02130152484963697
      }
    },
    {
      "weights": {
        "alpha": 1.0,
        "beta": 0.6,
        "gamma": 1.0
      },
      "training_reward_history": [
        0.9355609531806058
      ],
      "lagrangian_history": [
        0.2
      ],
      "training_diagnostics": {
        "algorithm": "grpo",
        "clip_fraction_history": [
          0.0
        ],
        "approx_kl_history": [
          0.0
        ],
        "grad_norm_history": [
          0.017320508075688773
        ],
        "epoch_reward_std_history": [
          0.12397134898442455
        ],
        "epoch_adv_std_history": [
          0.0
        ],
        "ratio_clip_epsilon": 0.2,
        "kl_coef": 0.02,
        "ref_update_interval": 2,
        "grad_clip_norm": 5.0
      },
      "family_shift": {
        "family_names": [
          "semantic",
          "object",
          "geometry",
          "low_level"
        ],
        "exposure_retention_fraction_by_family": [
          [
            1.0,
            1.0,
            1.0,
            1.0
          ],
          [
            1.0,
            1.0,
            1.0,
            1.0
          ],
          [
            1.0,
            1.0,
            1.0,
            1.0
          ]
        ],
        "policy_delta_exposure3_minus1": [
          0.0,
          0.0,
          0.0,
          0.0
        ]
      },
      "family_brain_alignment": {
        "per_roi_spearman": [
          0.0,
          0.0
        ],
        "mean_spearman": 0.0
      },
      "fr_rsa": {
        "strategy": "compressed",
        "exposure_correlations": [
          0.1416666666666667,
          0.0,
          -0.43333333333333335
        ],
        "roi_exposure_correlations": [
          [
            0.5833333333333334,
            -0.3
          ],
          [
            0.39999999999999997,
            -0.39999999999999997
          ],
          [
            -0.7333333333333334,
            -0.13333333333333333
          ]
        ],
        "roi_family_weights": [
          [
            [
              0.020761962346326095,
              0.0,
              0.09228955293445897,
              0.0
            ],
            [
              0.35916626210563135,
              0.017467294710815623,
              0.0,
              0.0
            ]
          ],
          [
            [
              0.22586816511059787,
              0.040015018887314006,
              0.00795991199207333,
              0.0
            ],
            [
              0.2831285148995153,
              0.020084595705254542,
              0.39072571853369376,
              0.0
            ]
          ],
          [
            [
              0.0,
              0.0,
              0.0,
              0.0
            ],
            [
              0.0,
              0.0,
              0.0,
              0.07660185395889081
            ]
          ]
        ]
      },
      "behavior_fit": {
        "name": "policy",
        "spearman": 0.07997333942467778,
        "mse": 0.02130152484963697
      }
    }
  ],
  "encoding_results": [
    {
      "strategy": "raw",
      "exposure_scores": [
        -1.8104968961678631,
        -1.1987858039373624,
        -2.030791945846749
      ],
      "family_drop_scores": [
        [
          0.1306954161289049,
          0.048584316498067714,
          -0.1563234409039902,
          -1.4177430123784895
        ],
        [
          0.004796502652236079,
          -0.05030038969601858,
          -0.19055301543397674,
          -0.014044826316935488
        ],
        [
          0.0008015158522725052,
          0.057921605065185844,
          -0.17402198201629693,
          -0.4292456445987378
        ]
      ],
      "best_alphas_by_exposure": [
        [
          4.0,
          16.0,
          16.0,
          1.0
        ],
        [
          1.0,
          4.0,
          1.0,
          16.0
        ],
        [
          16.0,
          16.0,
          4.0,
          4.0
        ]
      ]
    },
    {
      "strategy": "compressed",
      "exposure_scores": [
        -1.8104968961678631,
        -1.1987858039373624,
        -2.030791945846749
      ],
      "family_drop_scores": [
        [
          0.1306954161289049,
          0.048584316498067714,
          -0.1563234409039902,
          -1.4177430123784895
        ],
        [
          0.004796502652236079,
          -0.05030038969601858,
          -0.19055301543397674,
          -0.014044826316935488
        ],
        [
          0.0008015158522725052,
          0.057921605065185844,
          -0.17402198201629693,
          -0.4292456445987378
        ]
      ],
      "best_alphas_by_exposure": [
        [
          4.0,
          16.0,
          16.0,
          1.0
        ],
        [
          1.0,
          4.0,
          1.0,
          16.0
        ],
        [
          16.0,
          16.0,
          4.0,
          4.0
        ]
      ]
    },
    {
      "strategy": "compressed",
      "exposure_scores": [
        -1.8104968961678631,
        -1.1987858039373624,
        -2.030791945846749
      ],
      "family_drop_scores": [
        [
          0.1306954161289049,
          0.048584316498067714,
          -0.1563234409039902,
          -1.4177430123784895
        ],
        [
          0.004796502652236079,
          -0.05030038969601858,
          -0.19055301543397674,
          -0.014044826316935488
        ],
        [
          0.0008015158522725052,
          0.057921605065185844,
          -0.17402198201629693,
          -0.4292456445987378
        ]
      ],
      "best_alphas_by_exposure": [
        [
          4.0,
          16.0,
          16.0,
          1.0
        ],
        [
          1.0,
          4.0,
          1.0,
          16.0
        ],
        [
          16.0,
          16.0,
          4.0,
          4.0
        ]
      ]
    },
    {
      "strategy": "compressed",
      "exposure_scores": [
        -1.8104968961678631,
        -1.1987858039373624,
        -2.030791945846749
      ],
      "family_drop_scores": [
        [
          0.1306954161289049,
          0.048584316498067714,
          -0.1563234409039902,
          -1.4177430123784895
        ],
        [
          0.004796502652236079,
          -0.05030038969601858,
          -0.19055301543397674,
          -0.014044826316935488
        ],
        [
          0.0008015158522725052,
          0.057921605065185844,
          -0.17402198201629693,
          -0.4292456445987378
        ]
      ],
      "best_alphas_by_exposure": [
        [
          4.0,
          16.0,
          16.0,
          1.0
        ],
        [
          1.0,
          4.0,
          1.0,
          16.0
        ],
        [
          16.0,
          16.0,
          4.0,
          4.0
        ]
      ]
    },
    {
      "strategy": "compressed",
      "exposure_scores": [
        -1.8104968961678631,
        -1.1987858039373624,
        -2.030791945846749
      ],
      "family_drop_scores": [
        [
          0.1306954161289049,
          0.048584316498067714,
          -0.1563234409039902,
          -1.4177430123784895
        ],
        [
          0.004796502652236079,
          -0.05030038969601858,
          -0.19055301543397674,
          -0.014044826316935488
        ],
        [
          0.0008015158522725052,
          0.057921605065185844,
          -0.17402198201629693,
          -0.4292456445987378
        ]
      ],
      "best_alphas_by_exposure": [
        [
          4.0,
          16.0,
          16.0,
          1.0
        ],
        [
          1.0,
          4.0,
          1.0,
          16.0
        ],
        [
          16.0,
          16.0,
          4.0,
          4.0
        ]
      ]
    }
  ],
  "rsa_results": [
    {
      "strategy": "raw",
      "exposure_correlations": [
        0.1416666666666667,
        0.0,
        -0.43333333333333335
      ],
      "roi_exposure_correlations": [
        [
          0.5833333333333334,
          -0.3
        ],
        [
          0.39999999999999997,
          -0.39999999999999997
        ],
        [
          -0.7333333333333334,
          -0.13333333333333333
        ]
      ],
      "roi_family_weights": [
        [
          [
            0.020761962346326095,
            0.0,
            0.09228955293445897,
            0.0
          ],
          [
            0.35916626210563135,
            0.017467294710815623,
            0.0,
            0.0
          ]
        ],
        [
          [
            0.22586816511059787,
            0.040015018887314006,
            0.00795991199207333,
            0.0
          ],
          [
            0.2831285148995153,
            0.020084595705254542,
            0.39072571853369376,
            0.0
          ]
        ],
        [
          [
            0.0,
            0.0,
            0.0,
            0.0
          ],
          [
            0.0,
            0.0,
            0.0,
            0.07660185395889081
          ]
        ]
      ]
    },
    {
      "strategy": "compressed",
      "exposure_correlations": [
        0.1416666666666667,
        0.0,
        -0.43333333333333335
      ],
      "roi_exposure_correlations": [
        [
          0.5833333333333334,
          -0.3
        ],
        [
          0.39999999999999997,
          -0.39999999999999997
        ],
        [
          -0.7333333333333334,
          -0.13333333333333333
        ]
      ],
      "roi_family_weights": [
        [
          [
            0.020761962346326095,
            0.0,
            0.09228955293445897,
            0.0
          ],
          [
            0.35916626210563135,
            0.017467294710815623,
            0.0,
            0.0
          ]
        ],
        [
          [
            0.22586816511059787,
            0.040015018887314006,
            0.00795991199207333,
            0.0
          ],
          [
            0.2831285148995153,
            0.020084595705254542,
            0.39072571853369376,
            0.0
          ]
        ],
        [
          [
            0.0,
            0.0,
            0.0,
            0.0
          ],
          [
            0.0,
            0.0,
            0.0,
            0.07660185395889081
          ]
        ]
      ]
    },
    {
      "strategy": "compressed",
      "exposure_correlations": [
        0.1416666666666667,
        0.0,
        -0.43333333333333335
      ],
      "roi_exposure_correlations": [
        [
          0.5833333333333334,
          -0.3
        ],
        [
          0.39999999999999997,
          -0.39999999999999997
        ],
        [
          -0.7333333333333334,
          -0.13333333333333333
        ]
      ],
      "roi_family_weights": [
        [
          [
            0.020761962346326095,
            0.0,
            0.09228955293445897,
            0.0
          ],
          [
            0.35916626210563135,
            0.017467294710815623,
            0.0,
            0.0
          ]
        ],
        [
          [
            0.22586816511059787,
            0.040015018887314006,
            0.00795991199207333,
            0.0
          ],
          [
            0.2831285148995153,
            0.020084595705254542,
            0.39072571853369376,
            0.0
          ]
        ],
        [
          [
            0.0,
            0.0,
            0.0,
            0.0
          ],
          [
            0.0,
            0.0,
            0.0,
            0.07660185395889081
          ]
        ]
      ]
    },
    {
      "strategy": "compressed",
      "exposure_correlations": [
        0.1416666666666667,
        0.0,
        -0.43333333333333335
      ],
      "roi_exposure_correlations": [
        [
          0.5833333333333334,
          -0.3
        ],
        [
          0.39999999999999997,
          -0.39999999999999997
        ],
        [
          -0.7333333333333334,
          -0.13333333333333333
        ]
      ],
      "roi_family_weights": [
        [
          [
            0.020761962346326095,
            0.0,
            0.09228955293445897,
            0.0
          ],
          [
            0.35916626210563135,
            0.017467294710815623,
            0.0,
            0.0
          ]
        ],
        [
          [
            0.22586816511059787,
            0.040015018887314006,
            0.00795991199207333,
            0.0
          ],
          [
            0.2831285148995153,
            0.020084595705254542,
            0.39072571853369376,
            0.0
          ]
        ],
        [
          [
            0.0,
            0.0,
            0.0,
            0.0
          ],
          [
            0.0,
            0.0,
            0.0,
            0.07660185395889081
          ]
        ]
      ]
    },
    {
      "strategy": "compressed",
      "exposure_correlations": [
        0.1416666666666667,
        0.0,
        -0.43333333333333335
      ],
      "roi_exposure_correlations": [
        [
          0.5833333333333334,
          -0.3
        ],
        [
          0.39999999999999997,
          -0.39999999999999997
        ],
        [
          -0.7333333333333334,
          -0.13333333333333333
        ]
      ],
      "roi_family_weights": [
        [
          [
            0.020761962346326095,
            0.0,
            0.09228955293445897,
            0.0
          ],
          [
            0.35916626210563135,
            0.017467294710815623,
            0.0,
            0.0
          ]
        ],
        [
          [
            0.22586816511059787,
            0.040015018887314006,
            0.00795991199207333,
            0.0
          ],
          [
            0.2831285148995153,
            0.020084595705254542,
            0.39072571853369376,
            0.0
          ]
        ],
        [
          [
            0.0,
            0.0,
            0.0,
            0.0
          ],
          [
            0.0,
            0.0,
            0.0,
            0.07660185395889081
          ]
        ]
      ]
    }
  ],
  "family_shift": {
    "family_names": [
      "semantic",
      "object",
      "geometry",
      "low_level"
    ],
    "exposure_retention_fraction_by_family": [
      [
        1.0,
        1.0,
        1.0,
        1.0
      ],
      [
        1.0,
        1.0,
        1.0,
        1.0
      ],
      [
        1.0,
        1.0,
        1.0,
        1.0
      ]
    ],
    "policy_delta_exposure3_minus1": [
      0.0,
      0.0,
      0.0,
      0.0
    ]
  },
  "family_brain_alignment": {
    "per_roi_spearman": [
      0.0,
      0.0
    ],
    "mean_spearman": 0.0
  },
  "behavior_results": [
    {
      "name": "rl_policy",
      "spearman": 0.07997333942467778,
      "mse": 0.02130152484963697
    },
    {
      "name": "random",
      "spearman": 0.07997333942467778,
      "mse": 0.02130152484963697
    },
    {
      "name": "saliency",
      "spearman": 0.07997333942467778,
      "mse": 0.02130152484963697
    },
    {
      "name": "generic_compression",
      "spearman": 0.07997333942467778,
      "mse": 0.02130152484963697
    }
  ],
  "subject_results": {
    "subj01": {
      "n_images": 5,
      "encoding_rl": {
        "strategy": "compressed",
        "exposure_scores": [
          0.0,
          0.0,
          0.0
        ],
        "family_drop_scores": [
          [
            0.0,
            0.0,
            0.0,
            0.0
          ],
          [
            0.0,
            0.0,
            0.0,
            0.0
          ],
          [
            0.0,
            0.0,
            0.0,
            0.0
          ]
        ],
        "best_alphas_by_exposure": [
          [
            1.0,
            1.0,
            1.0,
            1.0
          ],
          [
            1.0,
            1.0,
            1.0,
            1.0
          ],
          [
            1.0,
            1.0,
            1.0,
            1.0
          ]
        ]
      },
      "fr_rsa_rl": {
        "strategy": "compressed",
        "exposure_correlations": [
          0.0,
          0.0,
          0.0
        ],
        "roi_exposure_correlations": [
          [
            0.0,
            0.0
          ],
          [
            0.0,
            0.0
          ],
          [
            0.0,
            0.0
          ]
        ],
        "roi_family_weights": [
          [
            [
              0.0,
              0.0,
              0.0,
              0.0
            ],
            [
              0.0,
              0.0,
              0.0,
              0.0
            ]
          ],
          [
            [
              0.0,
              0.0,
              0.0,
              0.0
            ],
            [
              0.0,
              0.0,
              0.0,
              0.0
            ]
          ],
          [
            [
              0.0,
              0.0,
              0.0,
              0.0
            ],
            [
              0.0,
              0.0,
              0.0,
              0.0
            ]
          ]
        ]
      },
      "behavior": [
        {
          "name": "rl_policy",
          "spearman": -0.23001353390931542,
          "mse": 0.029292203855738063
        },
        {
          "name": "random",
          "spearman": -0.23001353390931542,
          "mse": 0.029292203855738063
        },
        {
          "name": "saliency",
          "spearman": -0.23001353390931542,
          "mse": 0.029292203855738063
        },
        {
          "name": "generic_compression",
          "spearman": -0.23001353390931542,
          "mse": 0.029292203855738063
        }
      ]
    },
    "subj02": {
      "n_images": 5,
      "encoding_rl": {
        "strategy": "compressed",
        "exposure_scores": [
          0.0,
          0.0,
          0.0
        ],
        "family_drop_scores": [
          [
            0.0,
            0.0,
            0.0,
            0.0
          ],
          [
            0.0,
            0.0,
            0.0,
            0.0
          ],
          [
            0.0,
            0.0,
            0.0,
            0.0
          ]
        ],
        "best_alphas_by_exposure": [
          [
            1.0,
            1.0,
            1.0,
            1.0
          ],
          [
            1.0,
            1.0,
            1.0,
            1.0
          ],
          [
            1.0,
            1.0,
            1.0,
            1.0
          ]
        ]
      },
      "fr_rsa_rl": {
        "strategy": "compressed",
        "exposure_correlations": [
          0.0,
          0.0,
          0.0
        ],
        "roi_exposure_correlations": [
          [
            0.0,
            0.0
          ],
          [
            0.0,
            0.0
          ],
          [
            0.0,
            0.0
          ]
        ],
        "roi_family_weights": [
          [
            [
              0.0,
              0.0,
              0.0,
              0.0
            ],
            [
              0.0,
              0.0,
              0.0,
              0.0
            ]
          ],
          [
            [
              0.0,
              0.0,
              0.0,
              0.0
            ],
            [
              0.0,
              0.0,
              0.0,
              0.0
            ]
          ],
          [
            [
              0.0,
              0.0,
              0.0,
              0.0
            ],
            [
              0.0,
              0.0,
              0.0,
              0.0
            ]
          ]
        ]
      },
      "behavior": [
        {
          "name": "rl_policy",
          "spearman": 0.3695104417171002,
          "mse": 0.013310845843535878
        },
        {
          "name": "random",
          "spearman": 0.3695104417171002,
          "mse": 0.013310845843535878
        },
        {
          "name": "saliency",
          "spearman": 0.3695104417171002,
          "mse": 0.013310845843535878
        },
        {
          "name": "generic_compression",
          "spearman": 0.3695104417171002,
          "mse": 0.013310845843535878
        }
      ]
    }
  },
  "setup_warnings": [
    "Average budget utilization is low (0.356); selector may be underfilling memory."
  ]
}